tree
version=v3
num_class=1
num_tree_per_iteration=1
label_index=0
max_feature_idx=66
objective=regression
feature_names=AD ADOSC ADX AROON_DOWN AROON_UP ATR BOLL_LOWER BOLL_MIDDLE BOLL_UPPER BOP CCI CMO DER10 DER120 DER20 DER30 DER60 DER90 DROC10 DROC20 DROC30 DROC5 DROC60 DROC90 EMA ER10 ER120 ER20 ER30 ER60 ER90 HT_TRENDLINE MA10 MA120 MA20 MA30 MA5 MA60 MACD MACDHIST MACDSIGNAL MOM NATR NEGNATR OBV PPO ROC1 ROC10 ROC20 ROC3 ROC30 ROC5 ROC60 ROC90 RSI14 SAR SIZE SLOWD TRIX14 ULTOSC WILLR WMA close high low open volume
feature_infos=[-230805024116.38873:162016247265.76086] [-58347380280.133087:73975619630.550171] [7.2749326087846073:83.823769908464584] [0:100] [0:100] [8.2564909119046517e-06:5296.6562887006467] [-1.6368878763325314:0.67614678899082847] [-0.79946129068088412:1.1140624999999986] [-0.26340191248913258:2.3885084311823324] [-1:1] [-325.34071455568125:333.33333333333837] [-79.004405259261631:99.967128996560987] [-1.0000000000000018:1.0000000000000058] [-0.49048897825154492:0.99848002059183782] [-0.91196755258158946:0.99960240644057141] [-0.74788902291917969:0.99946474834843757] [-0.62396111023992584:0.99912742871225801] [-0.49114256430140424:0.99895003102181068] [-0.77881281825116844:2.1568442952419877] [-1.0855873578100037:2.5683483525357689] [-1.0440302011147278:3.1221684180053533] [-0.63170097958964289:1.5982787307476174] [-1.3806976106272231:4.0673357657926612] [-1.4513591614005428:4.514898510617142] [0.00012018532727903871:58279.012003689248] [0:1.0000000000000058] [0:0.99848002059183782] [0:0.99960240644057141] [0:0.99946474834843757] [0:0.99912742871225801] [0:0.99895003102181068] [-0.98884243935441785:2.376243542086693] [0.10049316894368543:2.4894531249999994] [0.0086674812099670484:6.0860260372763868] [0.050397256470065536:2.7767477203647575] [0.033689436854381874:3.2999662276257977] [0.20053870931911585:2.1140624999999984] [0.017006127587100597:3.8153833164471429] [-5073.2787181822423:5248.1823157060571] [-1726.9251542805541:1233.8160929585652] [-4435.8517931464494:4502.9294575448421] [-21550.75:14443.139999999999] [0.040510289183442447:65.462190407948427] [-65.462190407948427:-0.040510289183442461] [-514813851354.28662:2148801310703.7134] [-46.051695518141109:116.48414482118585] [-56.31399317406143:129439.56834532373] [-73.424878836833599:287535.78274760378] [-76.818332093561452:365875.60975609755] [-65.71867203991556:163889.07103825136] [-80.192655027092115:366919.23076923075] [-67.739397428516597:137076.25899280576] [-81.53526970954357:602809.09090909082] [-92.291117771922899:635583.76068376075] [10.497797370369183:99.983564498280487] [6.5500000000000006e-05:64854] [-18.420680743952367:31.467700806294317] [0.13751765588058995:2.165992495800245] [-7666.8171998067501:4744.7863438954701] [12.193010667392725:85.614337293446837] [-99.999999999999986:0] [-0.93507706033472715:1.7906670026882137] [8.8599999999999999e-05:63575] [9.1600000000000004e-05:63800] [6.5500000000000006e-05:62020] [8.0099999999999995e-05:63158.739999999998] [1285.6439049999999:393582478115]
tree_sizes=2696 2769 2755 2784 2762 2769

Tree=0
num_leaves=31
num_cat=0
split_feature=51 38 50 56 50 44 5 44 61 22 57 42 20 57 13 43 59 46 53 0 55 40 45 58 23 45 42 18 1 66
split_gain=7.43868e+08 1.14448e+10 5.09682e+06 1.32572e+08 154852 109937 114990 218077 88237 47457.6 38807.6 60860.1 36488.7 34002.4 33856.5 35763.6 37090.9 33361.8 32872.7 26773 28086.3 64035.3 25387.4 36906.7 42631.7 34783.1 25234.6 22832.2 22109 21541.1
threshold=65.042164394463114 0.00017749413279696035 210.31915004143823 17.531640319170265 0.49663434742536211 57036088408.749992 0.0012011649608579297 328013283614.50006 0.36556046120072189 0.29376741465289041 1.0245710916132531 11.443394323042499 0.54179850108871586 0.9882792253241609 0.034078694841998346 -12.414841320769069 39.225688619145828 9.8273948209472248 -60.615449410800252 -469972617.79549676 0.077701589831309079 0.002386871169237522 15.508379326206535 2.8640103781858195 2.0599209547359361 -1.4809143744987094 16.184687363617517 -0.26237449008579095 54500051.501457699 18885268.395000007
decision_type=2 2 2 2 2 2 2 2 2 2 2 2 2 2 2 2 2 2 2 2 2 2 2 2 2 2 2 2 2 2
left_child=2 -2 4 -4 8 12 7 -7 14 -8 -5 -12 18 -3 -1 16 26 -10 -6 -15 21 -21 23 -14 25 -25 -16 -18 -13 -27
right_child=1 13 3 10 5 6 9 -9 17 -11 11 28 22 19 15 -17 27 -19 -20 20 -22 -23 -24 24 -26 29 -28 -29 -30 -31
leaf_value=20.482673291378855 2490.4741659270508 20.279526246235015 283.1655971287467 20.632179719064318 21.916061111419403 35.340314146159201 25.462189507874246 23.116446168676902 21.633736506531861 20.120740301115426 27.478888449604565 21.098764497193383 21.090183260540197 19.905971513164271 20.319826118990559 20.500878817253085 21.668428290105435 19.894638944361343 20.805736174787484 20.96124897338327 22.059830694701951 28.026842409908951 20.963232977330815 25.839182426771135 20.065205991888103 23.986512261252571 18.126130196667681 19.913946479105146 24.062330980775865 22.041373571564016
leaf_weight=8551 20 116 20 393 273 20 21 54 798 80 21 118 584 34 72 1304 78 128 11457 23 105 29 1277 32 74 70 193 1512 32 305
leaf_count=8551 20 116 20 393 273 20 21 54 798 80 21 118 584 34 72 1304 78 128 11457 23 105 29 1277 32 74 70 193 1512 32 305
internal_value=22.6943 172.63 20.9093 30.1515 20.7085 20.9345 23.4255 26.4202 20.4536 21.2313 21.1793 22.4369 20.9035 21.63 20.3793 20.0996 19.8175 21.3933 20.8316 22.4501 23.0011 24.9017 21.2639 21.6244 22.2731 22.6745 18.7222 20 21.731 22.4045
internal_weight=0 327 27467 584 26883 14247 175 74 12636 101 564 171 14072 307 11710 3159 1855 926 11730 191 157 52 2342 1065 481 407 265 1590 150 375
internal_count=27794 327 27467 584 26883 14247 175 74 12636 101 564 171 14072 307 11710 3159 1855 926 11730 191 157 52 2342 1065 481 407 265 1590 150 375
shrinkage=1


Tree=1
num_leaves=31
num_cat=0
split_feature=1 56 45 56 51 38 27 50 44 5 44 21 12 19 32 44 33 50 20 35 56 8 47 58 53 29 50 2 1 58
split_gain=7.06888e+08 1.04309e+10 4.28235e+06 1.06603e+08 5.92475e+06 6.31603e+07 261351 125031 80636.6 85574.8 119821 69700 42723.2 39730 37435.4 36975 36358.8 41208.7 35275.5 31884 31872.9 73776.9 28327.5 27470.3 26557.7 25665.4 25165 23191.3 21376.1 28053.2
threshold=2438687502.8338933 19.229866975400984 32.610180751604616 17.298110687027748 65.042164394463114 0.00049987998833548296 0.74117944040652806 3.7680550063774358 57036088408.749992 0.0012011649608579297 278128768747.00006 -0.19566337061240771 0.66959955838956653 0.93566788967349002 0.91894511244694743 23034233401.150013 2.1207058931638199 -14.79547725941107 0.54179850108871586 1.5962448482243579 12.629868375600068 0.091043423242549673 140.84381293968406 0.0020129546352607949 -65.138577116633186 0.083629960319974161 193.93641618497114 34.207837002276811 -9453714.3981580716 5.1680212583787197
decision_type=2 2 2 2 2 2 2 2 2 2 2 2 2 2 2 2 2 2 2 2 2 2 2 2 2 2 2 2 2 2
left_child=2 -2 4 -4 7 -6 12 11 13 10 -10 -1 -3 18 -11 -5 17 19 24 23 21 -20 26 -13 27 -25 -17 -9 -22 -30
right_child=1 6 3 15 5 -7 -8 8 9 14 -12 16 -14 -15 -16 22 -18 -19 20 -21 28 -23 -24 25 -26 -27 -28 -29 29 -31
leaf_value=-0.53423230481278561 2302.1054875532786 -2.1063686573642424 222.68139235336673 -2.1258697278031375 -187.66771223068238 -0.60030423526803189 -13.578024441152813 -0.99285791869674422 9.6276669025421153 2.6392156457901006 0.040790069475769998 -2.1921168484012639 2.4823711893775249 -5.2229240735371913 -2.3082040728055513 1.6384777983029684 -1.4050405676013671 -1.8898246197788553 -1.0527941401411849 -1.2995377221891473 -1.8600425887430037 -8.4610887908935553 2.7608975251515706 -3.0118054587444005 -1.6761220151807426 -2.0617728365283701 -2.300862193107605 2.0821970151737332 -1.2845409661098541 -0.44647392268673231
leaf_weight=319 21 261 22 457 20 185 20 105 22 20 32 4714 22 30 65 24 871 6205 41 333 370 20 27 894 10312 417 50 32 1308 575
leaf_count=319 21 261 22 457 20 185 20 105 22 20 32 4714 22 30 65 24 871 6205 41 333 370 20 27 894 10312 417 50 32 1308 575
internal_value=0 146.844 -1.73198 6.76947 -1.91535 -18.8508 -2.5304 -1.78525 -1.56203 0.833561 3.94655 -1.99515 -1.74965 -1.58805 -1.14411 -1.74319 -2.02984 -2.07316 -1.57951 -2.25208 -1.22623 -3.48174 -0.0116377 -2.30472 -1.65775 -2.70962 -1.02324 -0.274597 -1.16517 -1.02863
internal_weight=0 324 27470 580 26890 205 303 26685 12932 139 54 13753 283 12793 85 558 13434 12563 12763 6358 2314 61 101 6025 10449 1311 74 137 2253 1883
internal_count=27794 324 27470 580 26890 205 303 26685 12932 139 54 13753 283 12793 85 558 13434 12563 12763 6358 2314 61 101 6025 10449 1311 74 137 2253 1883
shrinkage=0.1


Tree=2
num_leaves=31
num_cat=0
split_feature=1 56 51 38 50 56 25 50 44 17 52 61 0 45 12 58 52 42 29 57 1 66 46 20 53 45 58 23 45 32
split_gain=5.72579e+08 8.44903e+09 3.66794e+06 5.351e+07 4.00307e+06 9.53507e+07 217356 97087.9 78855.4 81131.2 250441 61375.9 53759.3 46062 43216.7 39174 38721.5 29971.5 30709.8 28022.9 40583.4 31417.8 26141.2 24873.8 23463.3 21039.5 26251.4 31762.4 28305.1 32118.8
threshold=2438687502.8338933 19.229866975400984 65.042164394463114 0.00032153348489452946 210.31915004143823 17.531640319170265 0.81314136975919615 0.49663434742536211 57036088408.749992 0.19075256308978769 210.65621278688508 0.34517406949609025 -1780085294.2166054 41.336296141969783 0.66959955838956653 11.48521843914782 344.90433732283537 16.302043148734935 0.20499364248528687 1.055455830759189 -39326.230872926608 12018549.545000002 11.910759191727474 0.49942852576567925 -63.17505635061962 17.328306186673164 2.8640103781858195 2.0599209547359361 -0.54775956707350171 0.86318358427227448
decision_type=2 2 2 2 2 2 2 2 2 2 2 2 2 2 2 2 2 2 2 2 2 2 2 2 2 2 2 2 2 2
left_child=2 -2 4 -4 7 -6 14 11 13 -10 -11 17 -5 23 -3 -14 -15 -1 -19 -7 -21 -22 -13 24 -9 26 -25 28 29 -28
right_child=1 6 3 12 5 19 -8 8 9 10 -12 22 15 16 -16 -17 -18 18 -20 20 21 -23 -24 25 -26 -27 27 -29 -30 -31
leaf_value=-1.7941007915733953 2071.8949776785716 -1.8976203501452891 -170.56932049751282 -5.1449172139167789 221.35319374084474 -1.6453713413610154 -12.092111990281515 -0.44230348994165292 -1.5904071716591717 12.793183190822603 -0.44723649072647098 -0.89960062949471298 -1.0060282106200853 -1.6523473644256592 2.8177981558300202 2.4614045760570429 -7.8004808698381698 -2.3379516857082749 -1.3990643217123386 -1.7236716303909034 5.0112432046370081 0.13258059024810792 -2.5375029367044433 -1.2819909976125419 -1.5298932866591852 -1.4996805211396675 4.6211898423731332 -2.2203390383584933 -0.38819124401186622 -0.68373117673964734
leaf_weight=8997 21 261 20 27 20 396 21 202 64 20 50 919 198 20 21 39 21 2117 417 57 22 33 109 912 11015 1139 25 88 522 21
leaf_count=8997 21 261 20 27 20 396 21 202 64 20 50 919 198 20 21 39 21 2117 417 57 22 33 109 912 11015 1139 25 88 522 21
internal_value=0 132.16 -1.55878 -12.8644 -1.44068 7.18157 -2.27736 -1.61145 -1.43134 0.982954 3.33574 -1.81366 -0.917089 -1.4545 -1.54647 -0.435438 -4.80139 -1.87966 -2.18345 -1.25038 0.14619 2.08405 -1.07327 -1.44465 -1.51031 -1.17258 -0.934968 -0.452522 -0.178635 2.19938
internal_weight=0 324 27470 284 27186 528 303 26658 14099 134 70 12559 264 13965 282 237 41 11531 2534 508 112 55 1028 13924 11217 2707 1568 656 568 46
internal_count=27794 324 27470 284 27186 528 303 26658 14099 134 70 12559 264 13965 282 237 41 11531 2534 508 112 55 1028 13924 11217 2707 1568 656 568 46
shrinkage=0.1


Tree=3
num_leaves=31
num_cat=0
split_feature=6 56 55 58 48 40 45 45 56 51 17 58 1 50 56 1 1 44 5 53 21 18 42 44 23 21 20 33 50 33
split_gain=4.97454e+08 9.35013e+09 6.72369e+07 6.44425e+06 2.85436e+07 5.17689e+06 3.98598e+06 3.38835e+06 8.81922e+07 2.26036e+06 5.76759e+06 677803 3.16111e+06 79078.6 59926 538033 54223.3 52707.6 96082.9 175629 51494.5 46028.9 44353.4 28679.3 29442.6 31085.4 28649.6 26801.6 31472.2 24993.5
threshold=-0.49710059135737328 16.188693586123645 0.0015738445123968004 1946.1489141964557 47.869147294581445 -0.005108907184107391 55.246227309306676 32.610180751604616 17.298110687027748 65.042164394463114 0.2389144335706361 -3312.0626754028772 95037176.245461658 3.7680550063774358 1.0000000180025095e-35 357595585.86290509 95037176.245461658 57036088408.749992 0.0012011649608579297 183.62622001263563 -0.19566337061240771 0.12486642350475889 11.222304673455335 23034233401.150013 2.7029586972111579 0.090293763388789763 0.54179850108871586 2.1207058931638199 -15.936072852322622 1.1880845163196552
decision_type=2 2 2 2 2 2 2 2 2 2 2 2 2 2 2 2 2 2 2 2 2 2 2 2 2 2 2 2 2 2
left_child=1 -1 -3 7 -5 -4 16 9 -9 11 -11 12 -2 20 15 -15 -7 26 19 -19 -13 -20 -18 -10 25 -25 -16 28 29 -22
right_child=3 2 5 4 -6 6 -8 8 23 10 -12 13 -14 14 17 -17 22 18 21 -21 27 -23 -24 24 -26 -27 -28 -29 -30 -31
leaf_value=2113.7099492717875 -1.3721516862020389 -197.51536663636568 -50.462496498685624 -1.1959061045756287 -133.68241679668427 -0.92572022714312119 -46.58410983443261 212.53383819580077 -1.682879271227822 -64.862124921679495 -1.1372789130527146 -0.35667036099566357 -45.280328238010412 -1.3170523753700158 -1.3424348277721128 -18.551876430511477 6.1275981838052926 -0.23183035265490717 -2.1738503138224288 11.399248690605164 -2.1661512637328082 3.1298035693168642 0.25663880071332379 0.0040082881616991623 -1.5011333222663592 4.6978080931163975 -0.95049295807543366 -1.1105408603368483 -1.534638625236378 -1.7198718454431312
leaf_weight=22 91 20 26 87 20 189 20 20 417 20 49 315 20 192 10266 20 22 37 90 20 1783 20 31 43 63 21 2279 861 6493 4237
leaf_count=22 91 20 26 87 20 189 20 20 417 20 49 315 20 192 10266 20 22 37 90 20 1783 20 31 43 63 21 2279 861 6493 4237
internal_value=0 122.047 -20.215 -1.46648 -25.9597 -7.90245 -3.67893 -1.37068 6.29995 -1.53215 -19.6082 -1.48548 -9.28353 -1.45295 -1.27555 -2.94298 -0.13305 -1.24774 0.517107 3.84925 -1.62045 -1.20955 2.69364 -1.28218 0.0335034 1.54416 -1.27123 -1.65021 -1.68735 -1.85205
internal_weight=0 330 308 27464 107 288 262 27357 564 26793 69 26724 111 26613 12924 212 242 12712 167 57 13689 110 53 544 127 64 12545 13374 12513 6020
internal_count=27794 330 308 27464 107 288 262 27357 564 26793 69 26724 111 26613 12924 212 242 12712 167 57 13689 110 53 544 127 64 12545 13374 12513 6020
shrinkage=0.1


Tree=4
num_leaves=31
num_cat=0
split_feature=1 56 6 56 38 41 50 56 51 38 21 15 45 39 39 55 50 44 17 52 16 18 63 23 23 66 57 13 58 23
split_gain=4.54584e+08 6.62751e+09 9.63432e+06 6.81058e+07 6.64242e+06 8.51375e+06 3.02732e+06 6.67012e+07 2.58741e+06 5.4245e+06 176174 243362 117568 123966 91582.3 79221.3 70332.8 54084.7 63176.1 188206 50341 45084.5 37847.3 27401.3 29568.4 35701 30618.7 25241.3 22672 28462.8
threshold=2438687502.8338933 19.229866975400984 -0.49710059135737328 16.344667853344863 0.00017749413279696035 -0.0071949999999999506 210.31915004143823 17.531640319170265 65.042164394463114 0.0095067529753521274 0.18080679480554759 0.48717113839925114 41.336296141969783 0.001801842247770959 0.00045298767083983471 0.050877165281375959 3.7680550063774358 57036088408.749992 0.19075256308978769 210.65621278688508 0.40041583680628828 -0.27474503201474232 0.0019135000000000003 2.9058407500347436 2.4518319079087996 87389248.100000009 1.1475739366669166 0.0084904227712917588 5.1680212583787197 0.46785542690998777
decision_type=2 2 2 2 2 2 2 2 2 2 2 2 2 2 2 2 2 2 2 2 2 2 2 2 2 2 2 2 2 2
left_child=2 -2 3 -1 5 -5 8 -8 12 -10 11 -3 16 -14 -12 20 21 28 -19 -20 -6 -4 -9 24 26 -26 -24 -23 -18 -30
right_child=1 10 6 4 15 -7 7 22 9 -11 14 -13 13 -15 -16 -17 17 18 19 -21 -22 27 23 -25 25 -27 -28 -29 29 -31
leaf_value=-197.57669136583806 1835.7224911644346 -1.3970675970508846 -0.61985737200441238 2.1941253519058228 0.23174990245274138 -90.075855710506445 180.92543554760164 3.3543417128649624 -64.540862726420173 1.0921160487567678 9.5990747582912448 -12.876579593420031 -12.288996679782869 -1.1549914264678955 0.24923880533738571 -0.7293523948700702 -1.2221700610256978 -1.360762182977356 11.180173048973083 -0.51928914297710771 6.8145962657836767 -1.3833272399686041 -1.0497053525051032 -2.1186864256858828 -0.79552528194728356 5.1079430371522907 2.2436142776281605 -1.668581733655051 -1.4874063552697985 -0.74090775515204754
leaf_weight=20 21 241 619 20 21 20 21 22 20 34 20 20 20 20 22 183 9717 61 20 44 26 8052 316 133 21 20 31 5046 656 2307
leaf_count=20 21 241 619 20 21 20 21 22 20 34 20 20 20 20 22 183 9717 61 20 44 26 8052 316 133 21 20 31 5046 656 2307
internal_value=0 117.757 -1.38891 -19.5193 -6.32985 -43.9409 -1.19547 6.05451 -1.3491 -23.2164 -1.30944 -2.27672 -1.30464 -6.72199 4.70154 0.211195 -1.29647 -1.12793 0.941986 3.13679 3.87332 -1.45381 -0.708456 -0.880014 -0.455418 2.08422 -0.755489 -1.49322 -1.14833 -0.90618
internal_weight=0 324 27470 290 270 40 27180 564 26616 54 303 261 26562 40 42 230 26522 12805 125 64 47 13717 543 521 388 41 347 13098 12680 2963
internal_count=27794 324 27470 290 270 40 27180 564 26616 54 303 261 26562 40 42 230 26522 12805 125 64 47 13717 543 521 388 41 347 13098 12680 2963
shrinkage=0.1


Tree=5
num_leaves=31
num_cat=0
split_feature=51 56 38 56 58 0 6 56 45 56 58 60 48 55 38 33 56 50 53 18 44 5 26 50 33 50 5 55 47 17
split_gain=3.94136e+08 8.85116e+09 8.48999e+07 2.77041e+07 1.53402e+07 7.44238e+07 3.10441e+06 1.61805e+07 2.70569e+06 6.92516e+07 1.1839e+06 6.06002e+06 124729 93360.2 87130.7 74555.2 843705 62615.3 50995.6 40249.1 33337.9 105442 89875.9 30729.5 30245.2 21651.8 29556 21216 20892.1 19911.4
threshold=65.042164394463114 17.298110687027748 0.00032153348489452946 18.322659893050467 1946.1489141964557 -2728246572.1371036 -0.49710059135737328 17.564451023928626 32.610180751604616 17.725315410400309 -3312.0626754028772 -36.006721775784449 37.380505536651704 0.077701589831309079 0.00032153348489452946 0.29497686749869584 18.346579415754473 24.202258474267428 809.00650811576497 -0.32400194774549246 54875667537.749992 0.0012011649608579297 0.17867525852663943 -12.34523937809856 1.3275001434295872 254.79099986593005 0.56506135898480803 0.17642730275065605 -18.270952108917868 0.23461047715944558
decision_type=2 2 2 2 2 2 2 2 2 2 2 2 2 2 2 2 2 2 2 2 2 2 2 2 2 2 2 2 2 2
left_child=4 -2 -3 -4 6 12 7 -1 10 -10 11 -8 -6 18 -9 16 -12 19 -5 -17 25 22 -22 24 -21 -19 -27 -18 -26 -15
right_child=1 2 3 13 5 -7 8 14 9 -11 15 -13 -14 29 -16 17 27 20 -20 23 21 -23 -24 -25 28 26 -28 -29 -30 -31
leaf_value=-99.231036081314087 2147.4966566467288 -200.27278460693361 -121.43982950210571 1.2417641717034418 -1.380215673280113 -213.04182266235352 -0.57759310622791671 5.7991643447875987 188.52543276607992 -1.1611680037916114 -22.583510990738873 -61.371889814734459 7.6034848451614385 1.4790024734124907 -1.244994630651959 -0.24554886920893648 1.253176955919008 -0.96546588592439331 6.6487805597709899 -1.6688971260478027 0.36851444244384768 -1.3574405201843807 9.630838856697082 -1.1774591219829993 -0.93240901245510788 -1.1065116157134376 4.0985841143131259 -1.4563132772843044 -1.4085974804821098 -1.005966098715138
leaf_weight=20 20 25 20 37 68 20 91 25 20 511 20 20 20 41 59 379 37 7377 33 3284 22 84 20 10775 1305 24 20 132 3134 151
leaf_count=20 20 25 20 37 68 20 91 25 20 511 20 20 20 41 59 379 37 7377 33 3284 22 84 20 10775 1305 24 20 132 3134 151
internal_value=0 109.139 -23.6532 -7.9954 -1.29932 -38.9132 -1.15084 -18.3952 -1.08504 5.98334 -1.22548 -11.5315 0.661534 0.664478 0.851481 -1.1825 -3.16157 -1.16834 3.79079 -1.26568 -0.924888 0.688088 4.77915 -1.28658 -1.43882 -0.952274 1.25944 -0.863111 -1.26861 -0.475322
internal_weight=0 327 307 282 27467 108 27359 104 27255 531 26724 111 88 262 84 26613 189 26424 70 18877 7547 126 42 18498 7723 7421 44 169 4439 192
internal_count=27794 327 307 282 27467 108 27359 104 27255 531 26724 111 88 262 84 26613 189 26424 70 18877 7547 126 42 18498 7723 7421 44 169 4439 192
shrinkage=0.1


end of trees

feature_importances:
SIZE=17
ROC30=14
OBV=10
PPO=10
TRIX14=10
ADOSC=9
MACD=7
DROC90=6
ROC5=6
ATR=5
MA120=5
ROC90=5
SAR=5
DER90=4
DROC10=4
DROC30=4
DROC5=4
NATR=4
SLOWD=4
AD=3
BOLL_LOWER=3
ROC60=3
volume=3
DER10=2
DER120=2
ER60=2
MA10=2
MACDHIST=2
MACDSIGNAL=2
ROC1=2
ROC10=2
ROC20=2
WMA=2
ADX=1
BOLL_UPPER=1
DER30=1
DER60=1
DROC20=1
DROC60=1
ER10=1
ER120=1
ER20=1
MA30=1
MOM=1
NEGNATR=1
ULTOSC=1
WILLR=1
high=1

parameters:
[boosting: gbdt]
[objective: regression]
[metric: custom]
[tree_learner: serial]
[device_type: cpu]
[data: ]
[valid: ]
[num_iterations: 5000]
[learning_rate: 0.1]
[num_leaves: 31]
[num_threads: 0]
[deterministic: 0]
[force_col_wise: 0]
[force_row_wise: 0]
[histogram_pool_size: -1]
[max_depth: -1]
[min_data_in_leaf: 20]
[min_sum_hessian_in_leaf: 0.001]
[bagging_fraction: 1]
[pos_bagging_fraction: 1]
[neg_bagging_fraction: 1]
[bagging_freq: 0]
[bagging_seed: 3]
[feature_fraction: 1]
[feature_fraction_bynode: 1]
[feature_fraction_seed: 2]
[extra_trees: 0]
[extra_seed: 6]
[early_stopping_round: 500]
[first_metric_only: 0]
[max_delta_step: 0]
[lambda_l1: 0]
[lambda_l2: 0]
[min_gain_to_split: 0]
[drop_rate: 0.1]
[max_drop: 50]
[skip_drop: 0.5]
[xgboost_dart_mode: 0]
[uniform_drop: 0]
[drop_seed: 4]
[top_rate: 0.2]
[other_rate: 0.1]
[min_data_per_group: 100]
[max_cat_threshold: 32]
[cat_l2: 10]
[cat_smooth: 10]
[max_cat_to_onehot: 4]
[top_k: 20]
[monotone_constraints: ]
[monotone_constraints_method: basic]
[monotone_penalty: 0]
[feature_contri: ]
[forcedsplits_filename: ]
[refit_decay_rate: 0.9]
[cegb_tradeoff: 1]
[cegb_penalty_split: 0]
[cegb_penalty_feature_lazy: ]
[cegb_penalty_feature_coupled: ]
[path_smooth: 0]
[interaction_constraints: ]
[verbosity: -1]
[saved_feature_importance_type: 0]
[max_bin: 255]
[max_bin_by_feature: ]
[min_data_in_bin: 3]
[bin_construct_sample_cnt: 200000]
[data_random_seed: 1]
[is_enable_sparse: 1]
[enable_bundle: 1]
[use_missing: 1]
[zero_as_missing: 0]
[feature_pre_filter: 1]
[pre_partition: 0]
[two_round: 0]
[header: 0]
[label_column: ]
[weight_column: ]
[group_column: ]
[ignore_column: ]
[categorical_feature: ]
[forcedbins_filename: ]
[objective_seed: 5]
[num_class: 1]
[is_unbalance: 0]
[scale_pos_weight: 1]
[sigmoid: 1]
[boost_from_average: 1]
[reg_sqrt: 0]
[alpha: 0.9]
[fair_c: 1]
[poisson_max_delta_step: 0.7]
[tweedie_variance_power: 1.5]
[lambdarank_truncation_level: 30]
[lambdarank_norm: 1]
[label_gain: ]
[eval_at: ]
[multi_error_top_k: 1]
[auc_mu_weights: ]
[num_machines: 1]
[local_listen_port: 12400]
[time_out: 120]
[machine_list_filename: ]
[machines: ]
[gpu_platform_id: -1]
[gpu_device_id: -1]
[gpu_use_dp: 0]
[num_gpu: 1]

end of parameters

pandas_categorical:[]
